digraph Tree {
node [shape=box] ;
0 [label="X[3] <= 0.233\ngini = 0.667\nsamples = 149\nvalue = [49, 50, 50]"] ;
1 [label="gini = 0.0\nsamples = 29\nvalue = [29, 0, 0]"] ;
0 -> 1 [labeldistance=2.5, labelangle=45, headlabel="True"] ;
2 [label="X[2] <= 3.17\ngini = 0.625\nsamples = 120\nvalue = [20, 50, 50]"] ;
0 -> 2 [labeldistance=2.5, labelangle=-45, headlabel="False"] ;
3 [label="X[2] <= 2.085\ngini = 0.091\nsamples = 21\nvalue = [20, 1, 0]"] ;
2 -> 3 ;
4 [label="gini = 0.0\nsamples = 20\nvalue = [20, 0, 0]"] ;
3 -> 4 ;
5 [label="gini = 0.0\nsamples = 1\nvalue = [0, 1, 0]"] ;
3 -> 5 ;
6 [label="X[3] <= 2.157\ngini = 0.5\nsamples = 99\nvalue = [0, 49, 50]"] ;
2 -> 6 ;
7 [label="X[3] <= 1.735\ngini = 0.478\nsamples = 81\nvalue = [0, 49, 32]"] ;
6 -> 7 ;
8 [label="gini = 0.171\nsamples = 53\nvalue = [0, 48, 5]"] ;
7 -> 8 ;
9 [label="gini = 0.069\nsamples = 28\nvalue = [0, 1, 27]"] ;
7 -> 9 ;
10 [label="gini = 0.0\nsamples = 18\nvalue = [0, 0, 18]"] ;
6 -> 10 ;
}